,val,grad
0,"[[[[ 1.08909476e-01  2.83601912e-01 -5.06758697e-03 -6.78191605e-02
     6.99113745e-01]
   [ 2.27630428e+00  6.99299792e-01 -2.46145670e-01  9.36243455e-01
     1.39049737e+00]
   [ 3.99279469e-01  4.36285600e-01 -1.05643951e+00 -1.04385311e+00
    -3.20900812e-01]
   [-2.39952815e-01 -1.85555475e+00 -1.51124074e+00  1.08060801e+00
     7.71528113e-02]
   [-1.04843649e+00  7.85143680e-01 -4.63979527e-01 -2.70370327e+00
     1.01685367e+00]]]


 [[[-9.04045827e-01 -3.99482900e-01  5.76510450e-01  1.94760488e+00
     2.41660328e+00]
   [ 2.66435859e+00  4.09168725e-01 -1.34268476e+00 -4.22898856e-01
     1.15792538e+00]
   [ 6.46383980e-01 -1.53693412e+00  3.27157390e-01  1.51500264e+00
    -2.10007159e-01]
   [ 1.01479687e+00  1.78469128e+00 -4.84471874e-02  1.38062875e+00
    -7.38473103e-01]
   [-1.34913214e+00 -9.17759281e-01 -2.47283553e-01  1.42130700e-01
    -3.62389384e+00]]]


 [[[-1.92898642e+00  2.37575968e+00  2.80484212e+00 -8.02611736e-01
    -2.95693479e-01]
   [ 7.99010517e-02 -3.00906489e+00  6.87152619e-01  1.01450089e+00
     2.38479113e+00]
   [-2.53864251e+00  3.33848224e-01  1.75939172e-01  4.81431759e-01
    -9.45506820e-02]
   [ 2.65333018e-01  1.45207484e+00 -4.22585153e-01 -4.32372803e-01
     5.37446913e-01]
   [ 3.72302446e-01  2.52811666e+00 -1.06492493e+00 -3.83187142e-01
    -2.01006432e+00]]]


 [[[-2.15082093e-01 -1.59883192e+00 -3.70199650e-01 -7.47555783e-01
    -4.18970956e-03]
   [ 6.40172253e-01 -2.69149090e+00 -4.27579561e-01 -3.32414020e+00
    -1.29718530e+00]
   [-1.81354776e+00 -2.53640691e-01 -5.89579697e-01  6.43054863e-01
     9.04447471e-01]
   [-5.29688843e-01  3.60229932e+00  3.52567184e-02 -6.94187540e-01
     1.33734562e+00]
   [-3.48405931e-01 -1.71888520e-01 -3.19791349e-01 -1.56746178e-01
    -1.82093092e-01]]]


 [[[-6.37359270e-01  4.10970824e-01 -4.82958591e-01 -1.56405218e+00
     1.38509555e+00]
   [ 5.75788362e-04 -2.27486219e+00  3.02871594e+00 -2.63935065e+00
    -4.51328156e-01]
   [-6.43505446e-01 -3.71060908e-01 -2.19197246e+00 -2.48221014e+00
    -6.52216784e-02]
   [ 8.56450663e-01  2.05067533e+00  8.31975697e-01  2.73801711e+00
    -1.65927400e+00]
   [-8.82977428e-01 -1.34281253e+00  6.64073426e-01  4.70568669e-01
    -1.59466293e+00]]]


 [[[ 1.51254269e-01  9.45422702e-01  1.47568636e+00  8.05944315e-01
    -1.24451427e+00]
   [ 1.03502282e+00  1.67370393e+00  3.42169824e-01 -3.62643391e-01
    -1.44753297e+00]
   [-4.05597058e-01  1.20773712e+00  1.47428853e+00  9.98383349e-01
    -1.77267010e+00]
   [ 3.35396441e-01  1.59268257e+00 -5.72920431e-01 -9.51974458e-01
     1.37010922e+00]
   [ 9.97972024e-02  1.62272820e+00  1.73571302e+00  6.24649144e-03
    -2.23739107e+00]]]]",0
1,[-0.280235    1.30282628 -3.12534923  0.17063244 -0.76800597  0.01757318],0
2,"[[[[ 9.01923093e-01  2.77913650e-01 -8.17966186e-01 -2.10677291e-01
     1.24835963e-01]
   [-7.83242898e-02 -2.61368607e-01 -1.34708083e+00  1.80261132e-01
    -5.77237616e-01]
   [ 6.70570946e-01  8.74145185e-03  2.28467148e-02  2.37466222e-01
     9.02325732e-01]
   [-5.22947927e-01  4.63165041e-01  4.11084450e-01 -1.56018797e-01
     7.47732426e-02]
   [ 1.07473471e+00  2.95819808e-01 -4.21518439e-01 -5.95534128e-01
     3.01046394e-01]]

  [[ 3.43497263e-01 -8.93857560e-01  3.30163898e-01 -3.72349518e-01
    -3.55133602e-01]
   [ 3.70088524e-01 -2.70678322e-01 -2.26156353e-01 -7.84419951e-01
    -1.64172689e-01]
   [ 3.31283505e-01 -5.23616094e-01 -4.12568287e-01 -4.42444628e-01
     1.76789307e-01]
   [-8.02457872e-01  1.76728024e-01  5.62315001e-01  1.22467701e-01
     1.82007202e-01]
   [-7.24146138e-01  1.25838894e+00 -9.09572796e-03  3.29645387e-01
     1.14141777e-01]]

  [[ 2.94550215e-01  5.96929885e-01 -5.54210304e-01  1.14672995e-01
    -4.40245053e-01]
   [-1.61572041e-01 -1.48376143e+00  4.86553811e-01  7.86619277e-01
    -3.46693679e-02]
   [ 1.13462616e-01 -9.75524443e-01  4.24857053e-02  1.10687206e-01
     3.04963585e-01]
   [-1.06322407e+00  3.95815251e-01  3.72709254e-01 -4.62032118e-02
    -1.88558415e-01]
   [ 5.31789201e-01 -7.66063359e-01 -2.61179231e-02 -6.38745539e-01
    -6.77399211e-01]]

  [[ 1.15340410e+00 -8.84674135e-01 -1.20949181e+00  9.91635505e-03
    -8.94097579e-01]
   [-2.85276256e-01 -6.15087198e-02  5.35851073e-01  6.34158328e-01
     2.67289932e-01]
   [-4.02751420e-01  3.50922864e-02 -4.36605177e-02 -9.45752557e-01
     1.36320206e+00]
   [-6.61018834e-02  7.26784845e-01  5.69164187e-01 -5.98749741e-01
     4.87545769e-02]
   [-3.14164838e-01 -3.59660608e-01 -9.72355180e-01  5.24412254e-01
    -1.31740900e-01]]

  [[ 1.01291259e-01  3.23511355e-01 -4.70278292e-02 -5.24945408e-02
     4.15501696e-01]
   [ 4.56442810e-01  3.68867500e-01 -5.02609402e-01 -5.61069460e-01
    -1.69374547e-01]
   [-3.00074800e-01  2.34447925e-01  3.28785268e-02 -4.10947015e-01
    -3.26065371e-01]
   [ 7.95024192e-01  6.93850569e-01  4.43171882e-02 -1.62951404e-01
     2.37467935e-01]
   [-3.25346455e-01  4.88984900e-01  6.38048447e-01  4.18857924e-01
    -7.00474370e-01]]

  [[-6.19707802e-02 -8.00008360e-01 -4.93608777e-01 -8.65377056e-01
    -9.39943318e-01]
   [ 4.02658742e-03  5.44089407e-01 -3.83094266e-01  4.35646031e-01
    -5.57451547e-01]
   [ 6.13344055e-01 -1.77690310e-01  5.10689758e-01  3.08075936e-01
     5.83442888e-01]
   [-7.65092847e-01 -7.84634277e-02  5.49491211e-01  2.23609116e-01
    -3.48709264e-01]
   [ 6.24242989e-01  2.55135334e-01  1.39259858e-01  7.09249556e-01
     4.48601110e-01]]]


 [[[-7.94261735e-01 -8.46412059e-02 -2.16145720e-01 -2.22274681e-01
    -2.00977448e-01]
   [-6.68524582e-01  1.92066627e-01 -2.57488494e-01 -3.53879326e-01
    -6.28863328e-01]
   [-2.64662743e-01  2.49142977e-01  4.58106330e-01 -5.23398956e-01
    -1.62613582e-01]
   [-7.58092355e-01  4.64655344e-01 -6.11906724e-01  9.26801227e-02
    -4.00595276e-01]
   [ 1.08807475e-01  5.75180579e-01  5.32612436e-01 -8.60517661e-01
    -4.42013223e-01]]

  [[-4.50813363e-01 -6.88108880e-01  5.42352396e-01  3.73456238e-01
     4.56947723e-02]
   [-1.70378673e-01 -3.70338618e-01  3.34707503e-01 -2.48654475e-01
     4.87346431e-01]
   [-6.90248615e-01 -4.44348673e-01  1.76016782e-01  9.22987008e-01
     6.49465669e-01]
   [-3.56201444e-01  1.26755211e-02  4.95053642e-01  1.77826949e-01
    -5.48756305e-01]
   [-8.63639982e-01  5.95687690e-02 -2.64390316e-01 -4.97127159e-01
    -2.43510861e-01]]

  [[-5.18858599e-01  8.59396127e-02 -4.13509496e-01 -1.15887005e+00
    -1.81371270e-01]
   [-3.13223694e-01  2.91002993e-02 -9.20736421e-02 -2.54091921e-01
     6.46011639e-01]
   [ 4.57280944e-01 -8.00183102e-01  6.20889745e-01  2.03249208e-01
     6.57204336e-01]
   [ 1.94086384e-01 -6.90655873e-01 -4.19916016e-01  1.00453262e-01
     2.83885828e-01]
   [ 2.80264570e-01 -2.12363503e-01 -1.04240410e-01 -1.17179922e-01
    -5.71930557e-02]]

  [[-5.40583615e-01  4.09024029e-01 -1.68586248e-02 -3.71439462e-01
     3.51744111e-01]
   [-4.51066716e-01 -9.12415557e-01  9.35512452e-01 -2.93053741e-01
     1.06715744e+00]
   [-2.82849450e-01 -4.69178331e-01  8.94347517e-01 -2.08810346e-01
    -3.01548110e-01]
   [ 3.62183788e-01 -1.85913903e-01  6.23851132e-01  4.13418477e-01
    -2.86574568e-03]
   [ 1.75157556e-01  2.55305867e-01 -2.48271897e-01  8.97744214e-01
    -4.16904651e-01]]

  [[-2.06794471e-01 -6.20628848e-04 -2.82644332e-01  9.38504928e-01
     1.41007531e-01]
   [-3.19361135e-01 -3.55258975e-01  2.16307461e-01  1.13871997e-01
    -2.28761121e-01]
   [ 6.60124524e-01  7.68588022e-01  8.42335501e-01  4.86422638e-01
    -3.42967035e-01]
   [ 1.19869303e-01  3.34217013e-01  4.72907211e-02 -3.11649106e-01
     4.31133306e-01]
   [ 2.94905392e-01 -6.47188630e-01 -1.75396167e-01 -2.51048759e-01
    -1.79846310e-01]]

  [[-5.36835023e-01 -2.61552272e-02  8.06404471e-01 -1.91927546e-02
     1.22680561e-01]
   [-9.25227033e-02  2.00047705e-01 -4.05321997e-01  4.49032731e-01
     5.19532405e-01]
   [ 1.04715087e+00 -4.36520218e-01 -6.20628384e-01  1.49285858e-01
    -1.35509773e-01]
   [ 1.16784036e+00  5.56584917e-01  3.07246033e-01  1.20388580e+00
     1.26172979e-01]
   [ 3.16735551e-01  3.92037857e-01 -6.35521865e-02 -1.56867045e-01
     2.34226806e-01]]]


 [[[-2.33192950e-02  6.47850318e-01 -6.67207828e-01 -8.04567642e-01
    -5.71372343e-01]
   [-4.08186267e-01  9.21052326e-02  9.25755119e-01  4.75914379e-01
    -1.05350783e+00]
   [-7.06237087e-02 -2.64202598e-01 -5.78339561e-01 -6.91621457e-01
    -1.13156290e-02]
   [ 1.11447030e+00 -9.72173824e-01 -3.46312891e-01 -5.65699092e-02
     1.19550078e-01]
   [ 2.81450943e-01 -4.02619237e-01 -1.32866907e-01 -4.31028997e-01
    -5.51573695e-01]]

  [[-3.87574729e-01  7.03791284e-01  8.06587474e-02  7.79350572e-01
    -2.80403814e-01]
   [ 2.84515248e-01  1.88827621e-01  3.86257563e-01  4.55089983e-01
    -2.98635913e-01]
   [-1.99924605e-01  1.02972193e+00 -4.96154419e-01 -2.99481356e-03
     1.08250294e+00]
   [-1.16706021e+00 -3.15509735e-01 -3.98483267e-01 -6.96222600e-01
    -1.00137693e+00]
   [-1.70134693e-01 -1.33636584e-02  1.31020930e+00  3.07100199e-01
    -8.51134649e-01]]

  [[-8.86292795e-01  4.52614382e-01  9.20053487e-01 -3.11433978e-01
     4.93961421e-01]
   [ 9.44130592e-01 -1.15662991e-01  5.83187947e-01  1.23634737e+00
     8.71367425e-01]
   [ 5.01655401e-01 -4.82935455e-01  4.37330026e-02  6.71207028e-01
    -5.44691493e-01]
   [ 2.62815215e-01  4.39767947e-01 -6.90011321e-02  4.42498701e-01
     3.57293486e-01]
   [-7.50544069e-01  6.45711528e-01 -2.53383502e-01  8.55435933e-01
    -3.57489123e-01]]

  [[-2.86191451e-01  1.31034430e-02 -8.14688083e-01 -4.27086346e-02
    -5.29837168e-01]
   [ 3.45739719e-01 -1.02024973e-01 -4.94715927e-01 -7.37857507e-02
     2.02447054e-01]
   [-7.09637413e-02  3.86087738e-01  1.56440349e-01 -2.12735741e-01
     1.87378843e-01]
   [-6.48159741e-01  8.46356350e-01 -7.22316894e-02 -4.50883625e-02
     3.26994861e-01]
   [ 7.20081944e-02 -2.44196617e-01 -3.08219920e-01  6.96099460e-02
    -6.26232635e-01]]

  [[-5.64778640e-01 -2.13787870e-01 -3.66052622e-01 -1.15191920e-01
    -5.38731013e-03]
   [ 7.64326516e-01 -1.24287842e-01 -3.44349796e-01  6.31241060e-01
     5.45573274e-01]
   [ 4.35088969e-01  8.56349149e-01  3.60387608e-02  1.35906126e-01
    -3.62474258e-01]
   [-4.23631938e-01  3.69676414e-01  4.19450092e-01  8.16880247e-02
     5.25475469e-01]
   [ 6.32879670e-01  2.83136408e-01  5.15414919e-01  1.20551320e+00
    -6.89929594e-01]]

  [[-3.84477087e-01 -3.78018867e-01  1.25066067e+00  2.99473694e-01
    -7.34457508e-02]
   [ 6.07514034e-01 -3.42442246e-01 -3.08320307e-01 -1.84195863e-01
    -2.32782913e-02]
   [ 8.26525001e-02  4.81055749e-01 -1.00426142e+00  6.92406777e-01
    -1.89590430e-01]
   [ 3.06909970e-01 -3.46540031e-01 -1.05144990e-01 -8.78913802e-01
     5.36698447e-01]
   [ 7.61631178e-01 -2.46378367e-01  2.70603755e-01  8.12766321e-01
     1.52686192e-01]]]


 ...


 [[[ 9.34781101e-01 -1.52454956e-01  5.50608886e-01  6.08517821e-01
    -7.27749992e-02]
   [ 5.94247314e-01 -1.16955564e+00  5.88018246e-02 -1.56852402e+00
    -3.01457176e-01]
   [-8.19442169e-05  5.97266370e-01  1.59847621e-01 -9.80853389e-02
     1.11298523e+00]
   [-1.33277443e-01 -1.13884932e-01 -9.16828291e-02  3.18788262e-01
     5.05656795e-01]
   [ 7.83159906e-01  1.00920411e-01  3.50663351e-01 -5.55957537e-02
    -9.95439467e-02]]

  [[ 4.37980658e-01  6.24447416e-01 -7.44535935e-02 -3.37170137e-01
     6.93354940e-02]
   [ 3.38601469e-01  2.08612348e-01 -4.91796390e-01  2.13053955e-01
    -7.06838193e-01]
   [-1.02527549e+00 -3.43657535e-01  1.27307971e-01  7.41010951e-02
     4.12751673e-01]
   [ 5.07743776e-01  6.16494206e-01  5.24123998e-01  3.43042640e-01
    -7.75639152e-01]
   [ 2.59147788e-01 -2.53871609e-01  4.80120703e-01 -3.63675823e-01
    -8.44402670e-01]]

  [[-6.34710305e-01 -5.01317778e-01 -7.39088326e-02 -4.40541291e-01
     5.84205842e-01]
   [-2.47189873e-01  3.69808755e-01 -3.61193909e-01  2.46943987e-01
    -6.32325249e-01]
   [ 1.88684052e-01  4.31312406e-01 -8.44687928e-01  1.00581529e+00
     5.41644968e-02]
   [-7.22135884e-01 -3.37244264e-01 -8.72048746e-01 -5.24517385e-01
     6.39226089e-01]
   [ 1.03845617e+00 -7.66996451e-01 -2.82055649e-01 -2.93124252e-01
     3.31545933e-01]]

  [[-3.82324879e-01 -4.99988205e-01 -3.46636638e-01 -5.48834769e-01
     2.63750215e-01]
   [ 2.03298044e-01 -4.12451195e-01  1.94733275e-01 -1.05348265e+00
    -2.53380135e-01]
   [-3.66491050e-01  5.72947417e-01 -2.93700758e-01  8.94266546e-01
     1.35454139e-01]
   [-1.39159177e-02  1.02854887e-01  8.74698779e-01  3.66251302e-01
     3.66411012e-01]
   [-7.27212955e-02  5.97280686e-01 -9.67138454e-01  2.54739719e-02
    -2.88165942e-01]]

  [[ 3.08326249e-01 -9.98491756e-02 -5.46837107e-02  3.17830017e-01
     2.51928595e-02]
   [ 5.08893800e-01 -2.34956211e-01  2.34209997e-01  3.00951413e-01
    -5.94968319e-01]
   [ 6.85698283e-01 -6.02488993e-01 -7.92084612e-01  1.46417364e-01
    -2.28517084e-01]
   [ 6.75064042e-01  1.16955178e+00 -7.62462601e-02  3.33113779e-01
     2.48030997e-01]
   [ 9.97755700e-01  3.17121982e-01 -2.25011292e-01 -1.33061089e-01
    -5.25383604e-01]]

  [[-6.26974593e-01 -2.35929734e-01 -2.08871160e-01 -1.77767373e-01
    -2.21714739e-01]
   [-6.01182953e-01 -2.93618595e-01 -2.42261269e-01 -3.67865706e-01
    -1.07148381e+00]
   [ 1.05095981e-01 -1.42115997e-01  8.48853416e-01 -1.18024076e+00
     1.70301408e-02]
   [-2.40864660e-01 -3.50550666e-01  4.83902877e-01 -1.92290587e-01
     4.36551972e-01]
   [ 2.42917911e-01  4.66756128e-01  4.93620542e-02  8.98957135e-01
     6.12807792e-01]]]


 [[[ 2.86884874e-01  1.09180208e+00  6.82283902e-01  1.06041266e-01
    -4.10056000e-01]
   [-1.10213422e-02  6.42275714e-01 -7.20998307e-01  2.15745106e-01
     4.05967173e-01]
   [ 4.89828584e-01 -5.12546863e-01 -3.75096067e-01  3.66286880e-01
    -4.55346925e-01]
   [-1.24910113e+00 -2.60653019e-01 -4.20338789e-01 -4.33154551e-01
     5.53189846e-01]
   [ 9.44298811e-02 -6.79669593e-01  1.45048078e-01  9.50638904e-01
    -7.24217216e-01]]

  [[-5.39391052e-01  1.13284112e-02  4.53845689e-01  1.00905192e-01
     7.56606806e-01]
   [-7.65705768e-01  2.75211413e-01 -2.45289660e-03  6.62487482e-01
     5.71685938e-01]
   [-2.37048696e-01  6.05221163e-01 -7.64675253e-01  2.45570264e-01
    -1.70426290e-01]
   [-5.17278436e-02 -4.41980225e-01  3.58469512e-01  7.94256042e-01
    -1.28076508e+00]
   [ 3.26376202e-01  1.40365554e-01 -1.20981136e-01 -2.52340854e-01
    -3.28180151e-01]]

  [[-4.46488333e-01  7.60578401e-02 -3.85215548e-01 -1.67904879e-01
    -5.21116463e-02]
   [ 8.72881485e-01  1.65351407e-01  6.94181854e-01  1.91886419e-01
    -2.44214019e-01]
   [-1.87052142e-01  2.91107992e-01  6.39398002e-01 -7.02700429e-01
    -1.95444313e-01]
   [-1.65602375e-01  1.00864155e-01  2.58370422e-01 -2.75498862e-01
     1.33460902e-01]
   [ 2.00209056e-01 -7.00024192e-01  9.90491853e-01  2.63421292e-01
     7.57380591e-01]]

  [[-6.81907344e-02 -1.96769579e-03 -7.69239432e-01  1.04656034e-01
    -5.07996125e-01]
   [-1.95387695e-02  6.99105208e-02  1.53658895e-01  2.67017969e-01
    -1.23432526e-01]
   [-2.71575447e-01 -7.53106500e-01  4.31259341e-01  5.15142967e-01
     1.91375474e-01]
   [ 1.01661672e+00 -2.15395067e-01 -2.91867243e-02 -5.74334688e-01
     4.74727821e-01]
   [ 9.47255545e-01  1.11551212e-01  4.23226882e-01  4.27370611e-02
     6.01370497e-01]]

  [[ 6.40028953e-01 -9.86814748e-01  4.81986269e-01  5.86702414e-02
     2.21478529e-01]
   [-6.91283818e-01  4.19419352e-01  2.38200697e-01 -4.56070520e-01
     5.15282122e-01]
   [-1.76621031e-01 -3.06046500e-01 -1.85894018e-02  3.73085167e-01
    -1.75276738e-01]
   [-5.90640450e-01  7.40270379e-01 -8.27482896e-01 -3.11920145e-01
    -6.27020156e-02]
   [ 2.50781776e-01 -4.02556048e-01  1.16009561e-01  6.60002946e-01
     7.59629583e-02]]

  [[ 5.52510804e-01 -1.69792829e-01  4.29502468e-02 -6.22787584e-02
     1.05297959e+00]
   [ 5.29217862e-01  8.43265246e-02 -8.48941387e-02  4.63358807e-01
    -6.09968652e-01]
   [ 1.86495805e-01 -3.70644577e-01  8.06837816e-02  3.19305758e-01
    -3.42200135e-01]
   [-9.52087195e-01 -6.91293992e-01  5.12990073e-01 -3.23027228e-01
    -8.56381585e-02]
   [-5.58203882e-01 -5.27402388e-01 -8.58388279e-01 -4.63583019e-01
     1.21965952e+00]]]


 [[[-2.33939008e-01  9.46512615e-01 -4.12600266e-01  1.18700995e+00
     1.29213459e+00]
   [ 7.51215202e-02 -2.49654456e-01  5.75721883e-01  5.49058164e-02
    -1.47243299e+00]
   [ 3.07450149e-02 -6.93561177e-02  2.38736779e-01 -2.50737254e-01
     3.53204225e-01]
   [ 3.24085730e-01  1.01309838e+00 -5.97773259e-01 -1.59526595e-03
    -1.95034981e-01]
   [-1.22975156e-01  4.65190040e-01  6.34070203e-01 -9.49664472e-01
    -6.39344939e-01]]

  [[ 2.32494474e-01  2.39598251e-01 -6.21509183e-01 -7.30183468e-01
    -6.62179777e-01]
   [-5.81711076e-01 -5.94518879e-03  1.59735638e-01  3.07249412e-01
     4.94123940e-01]
   [ 5.08725605e-01  4.82290779e-02  9.83308702e-01  1.03685607e-01
     2.72322917e-01]
   [ 6.56717104e-01  3.91588635e-01  4.54145759e-01 -5.40635724e-01
     8.08777191e-01]
   [ 1.09033637e+00  1.90536082e-01  2.57792391e-01  2.41398357e-01
    -2.95440936e-01]]

  [[-1.44475715e-01 -2.16778969e-01  1.13378757e-01  1.18999565e+00
    -1.79072394e-02]
   [-9.68348816e-01 -1.92049759e-01 -4.38294979e-01  4.92167452e-01
     1.16716463e+00]
   [ 1.10305974e+00 -5.53056021e-01  1.35196750e-01  7.37236555e-01
     9.49913007e-01]
   [ 7.21883287e-01  1.89242754e-01  3.75870306e-01  5.91771672e-01
     4.64468665e-01]
   [-1.00683312e-01  3.44449859e-01  1.06274921e+00  1.07487014e+00
    -1.16523005e+00]]

  [[-5.63986156e-01 -2.62277493e-01 -3.78623580e-02 -3.25904655e-03
     1.74457358e-01]
   [-2.95026850e-01 -4.54580331e-01 -4.52792514e-01  5.15394754e-01
     3.62061698e-01]
   [-3.06896242e-01 -4.79224741e-01  3.37848594e-01  7.28831116e-01
     4.96859955e-01]
   [ 7.86679738e-02  1.46994215e-02 -3.33967835e-01  1.49802757e+00
     1.27739741e+00]
   [-8.97428203e-01  1.77920884e-01 -2.31549639e-01  3.49318309e-01
    -3.29106909e-01]]

  [[-2.42400626e-01  6.22255934e-01 -1.11525815e-01  9.03054503e-01
     6.52365407e-02]
   [ 4.48551168e-01  2.95268623e-01  3.15609952e-01 -7.78102536e-02
    -1.28981515e-01]
   [-4.26241721e-01 -4.88891633e-01 -5.87805899e-01 -5.38878581e-01
     6.16529837e-02]
   [-6.23783782e-01 -3.55152647e-01  1.55306411e+00 -9.90125392e-01
     1.96089053e-01]
   [-8.06978943e-02  1.92522185e-02  7.85564231e-02 -6.19145644e-02
     1.94663319e-01]]

  [[ 3.36341239e-01 -9.70790202e-01  2.20887718e-01 -1.67787570e-01
    -3.13038419e-01]
   [ 6.99401024e-01  5.86372202e-01 -5.30117845e-01  8.09648775e-01
    -5.02234652e-01]
   [ 2.54114138e-01 -3.33849342e-01 -3.42016675e-02 -1.86027185e-01
     7.01001245e-01]
   [-9.41705574e-01  2.67354467e-01 -6.96068672e-01  2.85458118e-01
     7.69044156e-01]
   [-6.51581422e-02  9.54627220e-01 -5.46964506e-01 -6.22548879e-01
     2.62392855e-01]]]]",0
3,"[ 0.40253771 -0.50592466  0.52858984  0.86202099 -0.10192224 -0.70287554
 -0.78598715 -2.31805085 -1.7194066   0.1872091  -0.66988573 -1.19278831
 -0.93569515 -0.00994954 -0.79970755  0.24180278]",0
4,"[[-0.02775023  0.01980321  0.02340735 ... -0.00367839 -0.00747342
  -0.02075931]
 [ 0.05833924 -0.04853876  0.01923502 ... -0.01529228  0.01907967
   0.01235023]
 [-0.00222307 -0.05186874  0.01897875 ...  0.04840611  0.00595828
  -0.02986571]
 ...
 [ 0.02038461  0.01063147  0.00192762 ...  0.01445442 -0.06480203
   0.00166424]
 [ 0.02920973  0.00208096  0.03926603 ... -0.01256172  0.03153428
  -0.0497805 ]
 [-0.01912204  0.02174064 -0.02574835 ... -0.03385771 -0.01729281
   0.01169668]]","[[ 0.00000000e+00 -5.08642090e-03  4.93232874e-03 ...  0.00000000e+00
   0.00000000e+00 -2.57245431e-02]
 [ 0.00000000e+00 -2.42682660e-04  3.07231565e-03 ...  0.00000000e+00
   0.00000000e+00 -2.32161126e-02]
 [ 0.00000000e+00  2.24069220e-02 -5.15987504e-04 ...  0.00000000e+00
   0.00000000e+00 -5.10868608e-02]
 ...
 [ 0.00000000e+00  4.05056749e-01  1.47886788e-01 ...  0.00000000e+00
   1.58559124e-01 -1.98652437e-01]
 [ 0.00000000e+00  3.42853273e-01  1.57253098e-01 ...  0.00000000e+00
   1.64011198e-01 -1.84707548e-01]
 [ 0.00000000e+00  6.78246737e-01  1.00154768e-01 ...  0.00000000e+00
   2.87934640e-01 -5.11429604e-01]]"
5,"[ 8.67915270e-03  1.02724332e+00 -9.43621994e-03  4.41921722e-01
  5.68130609e-02  1.35136918e+00 -2.23060300e-01 -9.11355952e-01
  1.20721140e+00 -1.05095964e+00 -1.05666500e+00 -5.02298381e-01
 -6.17114417e-01 -3.96568548e-01  1.17253861e+00 -4.31366579e-01
  1.96859971e-02 -1.07556917e-01  4.06914584e-01 -5.46334750e-01
 -5.84363825e-01 -1.32972722e+00  1.23486129e+00  1.04950489e+00
 -6.84085956e-01 -3.56632513e-01 -1.14535803e+00  1.44045344e+00
 -9.81699373e-02 -7.96937095e-01 -9.28417317e-01 -1.28943908e+00
 -2.32224907e-01 -5.95666987e-01 -5.31984166e-01  1.19426186e+00
 -1.89463917e+00  8.51515721e-01  2.73319968e-01  9.54260209e-01
 -3.87356771e-02 -1.36689557e-01  3.78185428e-01 -1.87482358e-01
  6.54531330e-01 -4.90630649e-01  1.26921693e+00  4.69563154e-01
  1.21999749e+00 -1.10440055e+00  7.36852094e-02  1.01148560e+00
  4.37146921e-01  4.68461526e-01  4.07480493e-01  1.23487475e+00
  6.61002014e-01  1.67295947e+00 -2.50886372e-01 -4.64355845e-01
  5.44161189e-02 -1.10454923e+00  6.89013943e-01 -6.35069984e-01
  8.25530326e-01 -3.45386446e-01 -1.26330171e+00 -1.69388099e+00
  7.90791009e-01  7.36415862e-01 -1.78132764e+00  1.47480242e-01
 -1.29946641e+00 -7.17113982e-01 -6.53929070e-01  3.93518967e-01
  1.49836944e+00 -1.68364893e+00 -1.04307557e+00  8.55418810e-01
  5.36171254e-01 -7.65951760e-01  8.77981642e-01 -5.78455255e-01
 -9.07715106e-02  1.28595229e+00 -9.66784217e-04  1.46132443e+00
 -1.10965034e+00  3.29899653e-01  5.57965231e-01 -2.46442145e-01
  3.53962490e-01  5.17325759e-02  5.28563183e-01 -8.19557570e-02
 -4.36066676e-01 -3.50606961e-01  1.43115502e+00 -9.11200142e-01
  1.87252141e-02  1.57165332e-01 -9.69493681e-02 -8.97756485e-02
 -1.83686792e+00 -6.89690317e-01 -1.20422958e-01 -3.32688395e+00
  2.21497227e+00 -2.87837573e-01 -7.06583376e-01  2.91429395e-01
 -8.91972189e-01 -4.30401416e-01  1.97764516e+00 -5.18500314e-01
 -4.66121645e-02 -8.75757910e-01 -4.35976313e-01  4.13368852e-01
 -9.51661135e-01  2.21791176e+00  6.92257784e-01 -3.33432156e+00
 -6.34142675e-01 -4.25660079e-01 -8.26136159e-01  5.77756253e-01]","[ 0.          0.03139209  0.01547666  0.          0.          0.
 -0.01472592  0.          0.          0.          0.          0.
  0.03774534  0.          0.          0.          0.          0.
  0.          0.          0.          0.          0.         -0.02676003
  0.          0.          0.          0.05668524 -0.01881642  0.
  0.          0.          0.          0.          0.          0.03435419
  0.          0.          0.          0.          0.          0.
  0.          0.          0.         -0.01569278 -0.01840773  0.
 -0.00554057  0.          0.02270562  0.          0.          0.
  0.          0.         -0.0414772   0.01509464  0.0223723   0.
  0.00781833  0.02016562 -0.0319964  -0.02036496  0.          0.
  0.          0.          0.          0.          0.          0.
  0.          0.00633303  0.         -0.01932332  0.          0.
 -0.04203519  0.          0.          0.          0.          0.
  0.          0.          0.00553471 -0.02459229  0.          0.
  0.          0.          0.          0.         -0.01013728  0.
  0.          0.          0.          0.          0.          0.
  0.          0.         -0.01751584  0.01363848  0.          0.
 -0.04236204  0.          0.          0.         -0.04739255  0.
  0.          0.          0.          0.          0.          0.
  0.          0.          0.          0.          0.          0.
  0.01115449 -0.01705627]"
6,"[[ 0.03213622  0.09671923 -0.10510715 ...  0.12972239  0.15105123
   0.02296743]
 [ 0.05948104  0.08070349 -0.04901289 ... -0.0405753  -0.0281032
   0.04475814]
 [-0.02994264  0.10078763 -0.05316148 ...  0.02243957  0.17980106
  -0.01735455]
 ...
 [ 0.11115414  0.00179739  0.12326887 ... -0.01365863  0.09464416
   0.02693566]
 [ 0.02486575  0.10300883  0.11754925 ... -0.02836501  0.14062087
   0.05327923]
 [ 0.10846856 -0.02086526 -0.04247339 ...  0.07786729 -0.11683325
  -0.05010825]]","[[0. 0. 0. ... 0. 0. 0.]
 [0. 0. 0. ... 0. 0. 0.]
 [0. 0. 0. ... 0. 0. 0.]
 ...
 [0. 0. 0. ... 0. 0. 0.]
 [0. 0. 0. ... 0. 0. 0.]
 [0. 0. 0. ... 0. 0. 0.]]"
7,"[-0.05073079 -1.00734144  1.68941543 -0.05542515 -0.03028972 -0.01129524
  0.47167765 -0.06310477 -0.47581505 -0.4482046   0.27283393 -0.35432772
 -0.33637057  0.32277335 -0.22626999  1.87155307  0.33428325  1.44628794
 -0.36943603  1.72966932  1.59000587  0.38866668  0.22871566  0.17981985
  0.5965654  -0.88313417  0.78987658  0.00505843  0.97097888 -0.36976111
 -0.08516496 -1.08784889  0.11490932  0.52612732 -0.82403797  0.63821054
 -0.29420337 -0.7026844  -0.3854251  -0.55192756  0.0416618  -0.31133435
  0.59632728 -0.07949951  1.17302496  0.03621583  1.71018648  0.38722386
  0.79140715  0.07372137  1.01255851  1.68712029  0.39823039  0.96841559
  0.07282034  0.56718822 -0.71369653 -0.29975216  0.05209674  0.09957404
 -1.23306793 -0.40851795 -0.32777534 -1.41499073  0.95006319  0.82331298
  0.23804871  0.47162765  0.66132067 -0.86691459  0.43700815  1.50694883
 -0.51651622 -1.11743953  0.66742127  1.15604296 -0.81072729  0.23679984
  1.28486878  0.07560502  0.33815228  0.0744942  -1.169083   -0.82928386
 -0.87647394 -0.21642048  0.96805094  1.81614837 -0.95439739  1.28023196
  1.37926889 -0.01875719 -0.82130585 -0.12839056  0.75730446 -0.698401
  1.24470127 -1.46590793 -1.72282293 -0.05686173]","[ 0.          0.          0.          0.          0.          0.
  0.          0.          0.          0.00753788  0.          0.
  0.          0.          0.          0.          0.          0.
  0.          0.          0.          0.          0.          0.
  0.          0.          0.          0.          0.          0.
  0.          0.          0.          0.          0.          0.
  0.          0.          0.          0.          0.15821268  0.
  0.          0.          0.          0.          0.          0.
  0.          0.          0.          0.          0.          0.
  0.          0.          0.          0.          0.          0.
  0.          0.          0.          0.          0.          0.
  0.          0.          0.          0.          0.          0.
  0.          0.          0.          0.          0.          0.
  0.          0.          0.          0.          0.          0.
  0.          0.          0.          0.          0.          0.
  0.         -0.18918131  0.          0.          0.          0.
  0.          0.          0.          0.        ]"
8,"[[-0.02066933 -0.17091273  0.15821086 ... -0.07869537 -0.29850004
   0.03649692]
 [-0.10755714 -0.04050355 -0.08363032 ... -0.017748    0.00325012
   0.1259334 ]
 [-0.05220037 -0.02560135  0.04619758 ...  0.04877509  0.05677126
  -0.09200267]
 ...
 [-0.11503862  0.00089477  0.09159496 ... -0.03989445  0.3138277
  -0.0323829 ]
 [-0.17005396  0.10644162 -0.00221674 ... -0.19755839 -0.0236252
   0.04406084]
 [-0.15116798  0.10932049 -0.00570024 ...  0.08051453 -0.18169108
   0.04814004]]","[[0. 0. 0. ... 0. 0. 0.]
 [0. 0. 0. ... 0. 0. 0.]
 [0. 0. 0. ... 0. 0. 0.]
 ...
 [0. 0. 0. ... 0. 0. 0.]
 [0. 0. 0. ... 0. 0. 0.]
 [0. 0. 0. ... 0. 0. 0.]]"
9,"[ 0.43768037 -1.42080871  0.55795304 -0.36021589  0.53501607 -0.30482266
 -1.05080799  0.21296121 -1.24130002  0.4240081   0.13633756 -0.85635848
 -0.17782027  0.35502289  0.7115333  -1.45993006 -0.68365265 -2.00292023
  0.15192664  0.69267815  0.37969671 -0.99342851  0.45872986  0.50789887
  0.56100311  0.55049662 -2.21182639 -1.02044251  1.68308087  1.49096468
 -0.34318185  1.45395278  1.18912305  0.44701983  1.34118556  1.62564114
  0.53082707  0.17206835 -1.26995595 -0.08913728  0.08399082 -0.04428928
 -0.98818171  0.69026159  0.69182099 -0.41127687  0.05943603  0.36689191
  0.05733467  0.12755909]","[ 0.10831188  0.03180319  0.11668615  0.05948455  0.25431834  0.16328537
  0.05339081  0.06607648  0.03904709  0.10443229  0.12729559 -0.97031751
  0.02673942 -0.88461963  0.36290441  0.02871825  0.0505257   0.02332753
 -0.81539827  0.3775006   0.14040608  0.03961598  0.28353224  0.17490075
  0.23460267  0.165717    0.01759008  0.02597775  0.46946078  0.30073698
  0.15535363  0.34183658 -0.41853448  0.20047936  0.31615065  0.3249182
  0.10805154  0.19710143 -0.92097934  0.19226787  0.10368637  0.11457815
  0.03731793  0.21774235 -0.82178205  0.08428337 -0.83949256 -0.89884224
  0.16190405  0.16790666]"
